FANN_FLO_2.1
num_layers=5
learning_rate=0.700000
connection_rate=1.000000
network_type=0
learning_momentum=0.000000
training_algorithm=2
train_error_function=1
train_stop_function=1
cascade_output_change_fraction=0.010000
quickprop_decay=-0.000100
quickprop_mu=1.750000
rprop_increase_factor=1.200000
rprop_decrease_factor=0.500000
rprop_delta_min=0.000000
rprop_delta_max=50.000000
rprop_delta_zero=0.100000
cascade_output_stagnation_epochs=12
cascade_candidate_change_fraction=0.010000
cascade_candidate_stagnation_epochs=12
cascade_max_out_epochs=150
cascade_min_out_epochs=50
cascade_max_cand_epochs=150
cascade_min_cand_epochs=50
cascade_num_candidate_groups=2
bit_fail_limit=5.00000000000000000000e-01
cascade_candidate_limit=1.00000000000000000000e+03
cascade_weight_multiplier=4.00000005960464477539e-01
cascade_activation_functions_count=10
cascade_activation_functions=3 5 7 8 10 11 14 15 16 17 
cascade_activation_steepnesses_count=4
cascade_activation_steepnesses=2.50000000000000000000e-01 5.00000000000000000000e-01 7.50000000000000000000e-01 1.00000000000000000000e+00 
layer_sizes=4 5 5 5 3 
scale_included=0
neurons (num_inputs, activation_function, activation_steepness)=(0, 0, 0.00000000000000000000e+00) (0, 0, 0.00000000000000000000e+00) (0, 0, 0.00000000000000000000e+00) (0, 0, 0.00000000000000000000e+00) (4, 6, 1.00000000000000000000e+00) (4, 6, 1.00000000000000000000e+00) (4, 6, 1.00000000000000000000e+00) (4, 6, 1.00000000000000000000e+00) (0, 6, 1.00000000000000000000e+00) (5, 6, 1.00000000000000000000e+00) (5, 6, 1.00000000000000000000e+00) (5, 6, 1.00000000000000000000e+00) (5, 6, 1.00000000000000000000e+00) (0, 6, 1.00000000000000000000e+00) (5, 6, 1.00000000000000000000e+00) (5, 6, 1.00000000000000000000e+00) (5, 6, 1.00000000000000000000e+00) (5, 6, 1.00000000000000000000e+00) (0, 6, 1.00000000000000000000e+00) (5, 6, 1.00000000000000000000e+00) (5, 6, 1.00000000000000000000e+00) (0, 6, 1.00000000000000000000e+00) 
connections (connected_to_neuron, weight)=(0, 1.02460396289825439453e+00) (1, 1.26051664352416992188e+00) (2, 3.95558953285217285156e+00) (3, -1.43594697117805480957e-01) (0, -1.23438686132431030273e-01) (1, 8.62639904022216796875e-01) (2, -1.11635899543762207031e+00) (3, 3.30495715141296386719e-01) (0, 2.72208708338439464569e-03) (1, -3.55303555727005004883e-01) (2, -8.50414097309112548828e-01) (3, -3.09151411056518554688e-01) (0, 3.35361289978027343750e+00) (1, 2.08922958374023437500e+00) (2, 2.94984787702560424805e-01) (3, -7.16247618198394775391e-01) (4, 2.51874238252639770508e-01) (5, 1.47668957710266113281e+00) (6, -5.03948092460632324219e-01) (7, 2.11631730198860168457e-01) (8, -2.16351091861724853516e-01) (4, 5.20481765270233154297e-01) (5, 1.00697708129882812500e+00) (6, 8.06516051292419433594e-01) (7, 4.46866512298583984375e-01) (8, 9.73436117172241210938e-01) (4, 7.58127391338348388672e-01) (5, 1.31290316581726074219e+00) (6, 1.75153529644012451172e+00) (7, 3.77213060855865478516e-01) (8, -1.26641348004341125488e-01) (4, 5.11184453964233398438e-01) (5, 4.13247495889663696289e-01) (6, 3.92720341682434082031e-01) (7, 1.24547278881072998047e+00) (8, -1.36048942804336547852e-01) (9, -2.44195088744163513184e-01) (10, -1.96104139089584350586e-01) (11, 4.15737485885620117188e+00) (12, 2.88723349571228027344e+00) (13, 5.07652282714843750000e-01) (9, 3.53400409221649169922e-01) (10, 1.01997816562652587891e+00) (11, 5.98295032978057861328e-01) (12, 9.02413189411163330078e-01) (13, 4.26936030387878417969e-01) (9, -9.72232699394226074219e-01) (10, 7.06459105014801025391e-01) (11, 1.60854354500770568848e-01) (12, 5.73326408863067626953e-01) (13, -4.25135716795921325684e-02) (9, 5.33224403858184814453e-01) (10, 7.83254921436309814453e-01) (11, 1.66567001342773437500e+01) (12, 3.58503520488739013672e-01) (13, 7.50968635082244873047e-01) (14, -9.94566023349761962891e-01) (15, 1.55442643165588378906e+00) (16, 3.62750458717346191406e+00) (17, 3.91544312238693237305e-01) (18, -3.31788003444671630859e-01) (14, 1.12276065349578857422e+00) (15, -1.66954326629638671875e+00) (16, -3.82748222351074218750e+00) (17, -4.20426428318023681641e-01) (18, 4.11719411611557006836e-01) 
