FANN_FLO_2.1
num_layers=5
learning_rate=0.700000
connection_rate=1.000000
network_type=0
learning_momentum=0.000000
training_algorithm=2
train_error_function=1
train_stop_function=1
cascade_output_change_fraction=0.010000
quickprop_decay=-0.000100
quickprop_mu=1.750000
rprop_increase_factor=1.200000
rprop_decrease_factor=0.500000
rprop_delta_min=0.000000
rprop_delta_max=50.000000
rprop_delta_zero=0.100000
cascade_output_stagnation_epochs=12
cascade_candidate_change_fraction=0.010000
cascade_candidate_stagnation_epochs=12
cascade_max_out_epochs=150
cascade_min_out_epochs=50
cascade_max_cand_epochs=150
cascade_min_cand_epochs=50
cascade_num_candidate_groups=2
bit_fail_limit=5.00000000000000000000e-01
cascade_candidate_limit=1.00000000000000000000e+03
cascade_weight_multiplier=4.00000005960464477539e-01
cascade_activation_functions_count=10
cascade_activation_functions=3 5 7 8 10 11 14 15 16 17 
cascade_activation_steepnesses_count=4
cascade_activation_steepnesses=2.50000000000000000000e-01 5.00000000000000000000e-01 7.50000000000000000000e-01 1.00000000000000000000e+00 
layer_sizes=4 5 5 5 3 
scale_included=0
neurons (num_inputs, activation_function, activation_steepness)=(0, 0, 0.00000000000000000000e+00) (0, 0, 0.00000000000000000000e+00) (0, 0, 0.00000000000000000000e+00) (0, 0, 0.00000000000000000000e+00) (4, 6, 1.00000000000000000000e+00) (4, 6, 1.00000000000000000000e+00) (4, 6, 1.00000000000000000000e+00) (4, 6, 1.00000000000000000000e+00) (0, 6, 1.00000000000000000000e+00) (5, 6, 1.00000000000000000000e+00) (5, 6, 1.00000000000000000000e+00) (5, 6, 1.00000000000000000000e+00) (5, 6, 1.00000000000000000000e+00) (0, 6, 1.00000000000000000000e+00) (5, 6, 1.00000000000000000000e+00) (5, 6, 1.00000000000000000000e+00) (5, 6, 1.00000000000000000000e+00) (5, 6, 1.00000000000000000000e+00) (0, 6, 1.00000000000000000000e+00) (5, 6, 1.00000000000000000000e+00) (5, 6, 1.00000000000000000000e+00) (0, 6, 1.00000000000000000000e+00) 
connections (connected_to_neuron, weight)=(0, -5.74999511241912841797e-01) (1, 1.51968491077423095703e+00) (2, -2.21684479713439941406e+00) (3, -4.39909607172012329102e-01) (0, -4.43533331155776977539e-01) (1, 3.09322166442871093750e+00) (2, -1.19276142120361328125e+00) (3, 1.68536281585693359375e+00) (0, 3.96569633483886718750e+00) (1, 9.48404073715209960938e-02) (2, 1.39182078838348388672e+00) (3, 6.40191256999969482422e-01) (0, -2.35287278890609741211e-01) (1, 2.40665432065725326538e-02) (2, 9.39439356327056884766e-01) (3, 2.16333977878093719482e-02) (4, 1.35252821445465087891e+00) (5, -3.10598874092102050781e+00) (6, 4.07114148139953613281e-01) (7, -2.16444778442382812500e+00) (8, 8.35378110408782958984e-01) (4, 1.67096924781799316406e+00) (5, 5.14640510082244873047e-01) (6, 2.14771795272827148438e+00) (7, 3.11649155616760253906e+00) (8, -1.56318426132202148438e+00) (4, -6.62954521179199218750e+00) (5, 2.29008579254150390625e+00) (6, -1.44823241233825683594e+00) (7, -5.60613751411437988281e-01) (8, 2.88480305671691894531e+00) (4, 5.44145703315734863281e-01) (5, 2.65555977821350097656e+00) (6, -3.67836415767669677734e-01) (7, -2.79173779487609863281e+00) (8, 2.40808796882629394531e+00) (9, 2.97930628061294555664e-01) (10, -3.83121281862258911133e-01) (11, -3.98138284683227539063e+00) (12, -8.09512329101562500000e+00) (13, -1.17413818836212158203e+00) (9, 1.26807793974876403809e-01) (10, 1.18648387491703033447e-01) (11, 5.10245300829410552979e-02) (12, 1.43243134021759033203e-01) (13, -8.28977882862091064453e-01) (9, 1.54328453540802001953e+00) (10, 1.34897851943969726563e+00) (11, 6.54053986072540283203e-01) (12, 1.44219195842742919922e+00) (13, 6.41607046127319335938e-02) (9, -3.07243227958679199219e-01) (10, 4.41842794418334960938e-01) (11, 4.97852134704589843750e+00) (12, 9.39724540710449218750e+00) (13, 9.58659589290618896484e-01) (14, 1.10306763648986816406e+00) (15, 1.31471836566925048828e+00) (16, 2.32071208953857421875e+00) (17, 1.29712688922882080078e+00) (18, 9.65005438774824142456e-03) (14, 6.29149496555328369141e-01) (15, 6.08651220798492431641e-01) (16, -2.43257808685302734375e+00) (17, 3.77158224582672119141e-01) (18, 1.24369180202484130859e+00) 
