FANN_FLO_2.1
num_layers=5
learning_rate=0.700000
connection_rate=1.000000
network_type=0
learning_momentum=0.000000
training_algorithm=2
train_error_function=1
train_stop_function=1
cascade_output_change_fraction=0.010000
quickprop_decay=-0.000100
quickprop_mu=1.750000
rprop_increase_factor=1.200000
rprop_decrease_factor=0.500000
rprop_delta_min=0.000000
rprop_delta_max=50.000000
rprop_delta_zero=0.100000
cascade_output_stagnation_epochs=12
cascade_candidate_change_fraction=0.010000
cascade_candidate_stagnation_epochs=12
cascade_max_out_epochs=150
cascade_min_out_epochs=50
cascade_max_cand_epochs=150
cascade_min_cand_epochs=50
cascade_num_candidate_groups=2
bit_fail_limit=5.00000000000000000000e-01
cascade_candidate_limit=1.00000000000000000000e+03
cascade_weight_multiplier=4.00000005960464477539e-01
cascade_activation_functions_count=10
cascade_activation_functions=3 5 7 8 10 11 14 15 16 17 
cascade_activation_steepnesses_count=4
cascade_activation_steepnesses=2.50000000000000000000e-01 5.00000000000000000000e-01 7.50000000000000000000e-01 1.00000000000000000000e+00 
layer_sizes=4 5 5 5 3 
scale_included=0
neurons (num_inputs, activation_function, activation_steepness)=(0, 0, 0.00000000000000000000e+00) (0, 0, 0.00000000000000000000e+00) (0, 0, 0.00000000000000000000e+00) (0, 0, 0.00000000000000000000e+00) (4, 6, 1.00000000000000000000e+00) (4, 6, 1.00000000000000000000e+00) (4, 6, 1.00000000000000000000e+00) (4, 6, 1.00000000000000000000e+00) (0, 6, 1.00000000000000000000e+00) (5, 6, 1.00000000000000000000e+00) (5, 6, 1.00000000000000000000e+00) (5, 6, 1.00000000000000000000e+00) (5, 6, 1.00000000000000000000e+00) (0, 6, 1.00000000000000000000e+00) (5, 6, 1.00000000000000000000e+00) (5, 6, 1.00000000000000000000e+00) (5, 6, 1.00000000000000000000e+00) (5, 6, 1.00000000000000000000e+00) (0, 6, 1.00000000000000000000e+00) (5, 6, 1.00000000000000000000e+00) (5, 6, 1.00000000000000000000e+00) (0, 6, 1.00000000000000000000e+00) 
connections (connected_to_neuron, weight)=(0, -1.06620073318481445313e+00) (1, 1.16201925277709960938e+00) (2, 2.11484646797180175781e+00) (3, -5.22783100605010986328e-02) (0, -4.30999422073364257813e+00) (1, 9.40869927406311035156e-01) (2, -1.75938084721565246582e-02) (3, 5.62638640403747558594e-01) (0, 1.03338158130645751953e+00) (1, 7.50770449638366699219e-01) (2, 4.21703234314918518066e-02) (3, 6.32270812988281250000e-01) (0, 1.11497271060943603516e+00) (1, -2.79698157310485839844e+00) (2, 1.43858594819903373718e-02) (3, 3.61240953207015991211e-01) (4, -2.07208275794982910156e-01) (5, 1.73584473133087158203e+00) (6, 4.61263567209243774414e-01) (7, -5.76466143131256103516e-01) (8, 1.18009746074676513672e+00) (4, 2.77821928262710571289e-01) (5, -2.21712398529052734375e+00) (6, 1.49412560462951660156e+00) (7, -5.92255771160125732422e-01) (8, -1.21745198965072631836e-01) (4, 1.25716125965118408203e+00) (5, 1.82779383659362792969e+00) (6, 1.46542823314666748047e+00) (7, 4.41228181123733520508e-01) (8, -3.91440421342849731445e-01) (4, 4.72592115402221679688e+00) (5, -1.30621659755706787109e+00) (6, 1.39408040046691894531e+00) (7, 1.93015801906585693359e+00) (8, 1.78277921676635742188e+00) (9, 1.45361900329589843750e+00) (10, -2.71432042121887207031e+00) (11, -5.59590721130371093750e+00) (12, -1.79755699634552001953e+00) (13, -4.00031232833862304688e+00) (9, 7.41860985755920410156e-01) (10, 2.40829658508300781250e+00) (11, -2.68726766109466552734e-01) (12, -2.93728041648864746094e+00) (13, -4.17501479387283325195e-01) (9, 1.27123804092407226563e+01) (10, 5.43233156204223632813e+00) (11, -6.18056201934814453125e+00) (12, -3.69680762290954589844e+00) (13, -1.30012607574462890625e+00) (9, -1.52894005179405212402e-01) (10, 2.30438637733459472656e+00) (11, 9.86188948154449462891e-01) (12, 3.00098508596420288086e-01) (13, -1.34768974781036376953e+00) (14, 5.39130985736846923828e-01) (15, 1.26154553890228271484e+00) (16, 1.46146607398986816406e+00) (17, 2.46588349342346191406e+00) (18, 6.29208028316497802734e-01) (14, -5.37734925746917724609e-01) (15, -1.26600921154022216797e+00) (16, -1.47143864631652832031e+00) (17, -2.47405338287353515625e+00) (18, -6.27863466739654541016e-01) 
