FANN_FLO_2.1
num_layers=5
learning_rate=0.700000
connection_rate=1.000000
network_type=0
learning_momentum=0.000000
training_algorithm=2
train_error_function=1
train_stop_function=1
cascade_output_change_fraction=0.010000
quickprop_decay=-0.000100
quickprop_mu=1.750000
rprop_increase_factor=1.200000
rprop_decrease_factor=0.500000
rprop_delta_min=0.000000
rprop_delta_max=50.000000
rprop_delta_zero=0.100000
cascade_output_stagnation_epochs=12
cascade_candidate_change_fraction=0.010000
cascade_candidate_stagnation_epochs=12
cascade_max_out_epochs=150
cascade_min_out_epochs=50
cascade_max_cand_epochs=150
cascade_min_cand_epochs=50
cascade_num_candidate_groups=2
bit_fail_limit=5.00000000000000000000e-01
cascade_candidate_limit=1.00000000000000000000e+03
cascade_weight_multiplier=4.00000005960464477539e-01
cascade_activation_functions_count=10
cascade_activation_functions=3 5 7 8 10 11 14 15 16 17 
cascade_activation_steepnesses_count=4
cascade_activation_steepnesses=2.50000000000000000000e-01 5.00000000000000000000e-01 7.50000000000000000000e-01 1.00000000000000000000e+00 
layer_sizes=4 5 5 5 3 
scale_included=0
neurons (num_inputs, activation_function, activation_steepness)=(0, 0, 0.00000000000000000000e+00) (0, 0, 0.00000000000000000000e+00) (0, 0, 0.00000000000000000000e+00) (0, 0, 0.00000000000000000000e+00) (4, 6, 1.00000000000000000000e+00) (4, 6, 1.00000000000000000000e+00) (4, 6, 1.00000000000000000000e+00) (4, 6, 1.00000000000000000000e+00) (0, 6, 1.00000000000000000000e+00) (5, 6, 1.00000000000000000000e+00) (5, 6, 1.00000000000000000000e+00) (5, 6, 1.00000000000000000000e+00) (5, 6, 1.00000000000000000000e+00) (0, 6, 1.00000000000000000000e+00) (5, 6, 1.00000000000000000000e+00) (5, 6, 1.00000000000000000000e+00) (5, 6, 1.00000000000000000000e+00) (5, 6, 1.00000000000000000000e+00) (0, 6, 1.00000000000000000000e+00) (5, 6, 1.00000000000000000000e+00) (5, 6, 1.00000000000000000000e+00) (0, 6, 1.00000000000000000000e+00) 
connections (connected_to_neuron, weight)=(0, -5.33601403236389160156e-01) (1, -1.39265850186347961426e-01) (2, -1.53726518154144287109e+00) (3, -4.66170102357864379883e-01) (0, 1.03068256378173828125e+00) (1, 5.77919054031372070313e+00) (2, 1.12895298004150390625e+00) (3, 4.64796751737594604492e-01) (0, 1.02612524032592773438e+01) (1, 7.56351292133331298828e-01) (2, 2.52035474777221679688e+00) (3, -6.46680831909179687500e-01) (0, 1.17940168380737304688e+01) (1, 3.97674560546875000000e-01) (2, 3.13702732324600219727e-01) (3, -8.32952439785003662109e-01) (4, 1.99437528848648071289e-01) (5, 1.61289758980274200439e-02) (6, 1.43593883514404296875e+00) (7, 2.05156970024108886719e+00) (8, 6.99140578508377075195e-02) (4, 1.23531329631805419922e+00) (5, -3.43090385198593139648e-01) (6, 6.48081660270690917969e-01) (7, 3.54980975389480590820e-02) (8, 5.42649745941162109375e-01) (4, 9.14692103862762451172e-01) (5, 1.46731829643249511719e+00) (6, -6.79219514131546020508e-02) (7, 1.20442606508731842041e-01) (8, 1.09606480598449707031e+00) (4, 6.18832767009735107422e-01) (5, 2.67411971092224121094e+00) (6, 1.62411701679229736328e+00) (7, 8.28384339809417724609e-01) (8, -2.38089799880981445313e+00) (9, -1.54783535003662109375e+00) (10, 1.97402083873748779297e+00) (11, -2.96392828226089477539e-01) (12, -1.36825370788574218750e+00) (13, 1.02813780307769775391e+00) (9, 1.02694779634475708008e-01) (10, -1.42513966560363769531e+00) (11, -2.24032139778137207031e+00) (12, 5.47240301966667175293e-03) (13, 1.47689908742904663086e-01) (9, 4.72392916679382324219e-01) (10, 8.85536015033721923828e-01) (11, 3.89374000951647758484e-03) (12, 2.44912743568420410156e-01) (13, -1.36751219630241394043e-01) (9, 7.56798326969146728516e-01) (10, 9.41125750541687011719e-02) (11, 1.89776211977005004883e-01) (12, 8.67573916912078857422e-03) (13, 2.25131583213806152344e+00) (14, -2.02198907732963562012e-01) (15, -1.24671423435211181641e+00) (16, 1.35548818111419677734e+00) (17, -6.52963042259216308594e-01) (18, 4.19432163238525390625e-01) (14, 1.71269953250885009766e-01) (15, 1.29098463058471679688e+00) (16, -1.48062455654144287109e+00) (17, -3.62502485513687133789e-01) (18, 4.98918205499649047852e-01) 
