FANN_FLO_2.1
num_layers=5
learning_rate=0.700000
connection_rate=1.000000
network_type=0
learning_momentum=0.000000
training_algorithm=2
train_error_function=1
train_stop_function=1
cascade_output_change_fraction=0.010000
quickprop_decay=-0.000100
quickprop_mu=1.750000
rprop_increase_factor=1.200000
rprop_decrease_factor=0.500000
rprop_delta_min=0.000000
rprop_delta_max=50.000000
rprop_delta_zero=0.100000
cascade_output_stagnation_epochs=12
cascade_candidate_change_fraction=0.010000
cascade_candidate_stagnation_epochs=12
cascade_max_out_epochs=150
cascade_min_out_epochs=50
cascade_max_cand_epochs=150
cascade_min_cand_epochs=50
cascade_num_candidate_groups=2
bit_fail_limit=5.00000000000000000000e-01
cascade_candidate_limit=1.00000000000000000000e+03
cascade_weight_multiplier=4.00000005960464477539e-01
cascade_activation_functions_count=10
cascade_activation_functions=3 5 7 8 10 11 14 15 16 17 
cascade_activation_steepnesses_count=4
cascade_activation_steepnesses=2.50000000000000000000e-01 5.00000000000000000000e-01 7.50000000000000000000e-01 1.00000000000000000000e+00 
layer_sizes=4 5 5 5 3 
scale_included=0
neurons (num_inputs, activation_function, activation_steepness)=(0, 0, 0.00000000000000000000e+00) (0, 0, 0.00000000000000000000e+00) (0, 0, 0.00000000000000000000e+00) (0, 0, 0.00000000000000000000e+00) (4, 6, 1.00000000000000000000e+00) (4, 6, 1.00000000000000000000e+00) (4, 6, 1.00000000000000000000e+00) (4, 6, 1.00000000000000000000e+00) (0, 6, 1.00000000000000000000e+00) (5, 6, 1.00000000000000000000e+00) (5, 6, 1.00000000000000000000e+00) (5, 6, 1.00000000000000000000e+00) (5, 6, 1.00000000000000000000e+00) (0, 6, 1.00000000000000000000e+00) (5, 6, 1.00000000000000000000e+00) (5, 6, 1.00000000000000000000e+00) (5, 6, 1.00000000000000000000e+00) (5, 6, 1.00000000000000000000e+00) (0, 6, 1.00000000000000000000e+00) (5, 6, 1.00000000000000000000e+00) (5, 6, 1.00000000000000000000e+00) (0, 6, 1.00000000000000000000e+00) 
connections (connected_to_neuron, weight)=(0, 8.45680427551269531250e+00) (1, 1.89003181457519531250e+00) (2, 3.34749102592468261719e+00) (3, -5.93062996864318847656e-01) (0, -8.04159283638000488281e-01) (1, 1.34096705913543701172e+00) (2, -1.10801196098327636719e+00) (3, 1.03661715984344482422e+00) (0, -1.02366054058074951172e+00) (1, 1.60305953025817871094e+00) (2, -1.30744004249572753906e+00) (3, 7.18298494815826416016e-01) (0, -2.75346815586090087891e-01) (1, 1.20183801651000976563e+00) (2, -1.19024515151977539063e+00) (3, 6.08315706253051757813e-01) (4, 8.89327108860015869141e-01) (5, 1.23335011303424835205e-01) (6, 3.47659826278686523438e-01) (7, 3.21731775999069213867e-01) (8, 7.93830156326293945313e-02) (4, 4.66794848442077636719e-01) (5, 3.85046005249023437500e-01) (6, 2.86793231964111328125e-01) (7, -1.70247077941894531250e-01) (8, -7.70354390144348144531e-01) (4, 9.78254258632659912109e-01) (5, 8.31568121910095214844e-01) (6, 1.35379636287689208984e+00) (7, -3.15024703741073608398e-01) (8, 1.74990430474281311035e-01) (4, 5.12541413307189941406e-01) (5, 4.74440068006515502930e-01) (6, 1.20282077789306640625e+00) (7, 1.36920392513275146484e+00) (8, 5.20939052104949951172e-01) (9, 1.51158940792083740234e+00) (10, 1.92405760288238525391e+00) (11, 3.28654676675796508789e-01) (12, 1.61843907833099365234e+00) (13, 1.06766355037689208984e+00) (9, 3.44840466976165771484e-01) (10, 8.60221982002258300781e-02) (11, -1.90759196877479553223e-01) (12, -1.51209664344787597656e+00) (13, -1.19235837459564208984e+00) (9, 1.95304131507873535156e+00) (10, 9.78055223822593688965e-02) (11, 1.43873006105422973633e-01) (12, 8.33478569984436035156e-01) (13, -3.96741002798080444336e-01) (9, 2.15176850557327270508e-01) (10, 5.94461619853973388672e-01) (11, -1.69776454567909240723e-01) (12, -5.85293292999267578125e-01) (13, -1.15552186965942382813e+00) (14, 8.79621505737304687500e-01) (15, 4.51852753758430480957e-03) (16, 5.16480684280395507813e-01) (17, 8.34278404712677001953e-01) (18, 5.82429587841033935547e-01) (14, -4.41820174455642700195e-01) (15, 6.92595601081848144531e-01) (16, -6.32377028465270996094e-01) (17, 7.65214085578918457031e-01) (18, 1.30264616012573242188e+00) 
