FANN_FLO_2.1
num_layers=5
learning_rate=0.700000
connection_rate=1.000000
network_type=0
learning_momentum=0.000000
training_algorithm=2
train_error_function=1
train_stop_function=1
cascade_output_change_fraction=0.010000
quickprop_decay=-0.000100
quickprop_mu=1.750000
rprop_increase_factor=1.200000
rprop_decrease_factor=0.500000
rprop_delta_min=0.000000
rprop_delta_max=50.000000
rprop_delta_zero=0.100000
cascade_output_stagnation_epochs=12
cascade_candidate_change_fraction=0.010000
cascade_candidate_stagnation_epochs=12
cascade_max_out_epochs=150
cascade_min_out_epochs=50
cascade_max_cand_epochs=150
cascade_min_cand_epochs=50
cascade_num_candidate_groups=2
bit_fail_limit=5.00000000000000000000e-01
cascade_candidate_limit=1.00000000000000000000e+03
cascade_weight_multiplier=4.00000005960464477539e-01
cascade_activation_functions_count=10
cascade_activation_functions=3 5 7 8 10 11 14 15 16 17 
cascade_activation_steepnesses_count=4
cascade_activation_steepnesses=2.50000000000000000000e-01 5.00000000000000000000e-01 7.50000000000000000000e-01 1.00000000000000000000e+00 
layer_sizes=4 5 5 5 3 
scale_included=0
neurons (num_inputs, activation_function, activation_steepness)=(0, 0, 0.00000000000000000000e+00) (0, 0, 0.00000000000000000000e+00) (0, 0, 0.00000000000000000000e+00) (0, 0, 0.00000000000000000000e+00) (4, 6, 1.00000000000000000000e+00) (4, 6, 1.00000000000000000000e+00) (4, 6, 1.00000000000000000000e+00) (4, 6, 1.00000000000000000000e+00) (0, 6, 1.00000000000000000000e+00) (5, 6, 1.00000000000000000000e+00) (5, 6, 1.00000000000000000000e+00) (5, 6, 1.00000000000000000000e+00) (5, 6, 1.00000000000000000000e+00) (0, 6, 1.00000000000000000000e+00) (5, 6, 1.00000000000000000000e+00) (5, 6, 1.00000000000000000000e+00) (5, 6, 1.00000000000000000000e+00) (5, 6, 1.00000000000000000000e+00) (0, 6, 1.00000000000000000000e+00) (5, 6, 1.00000000000000000000e+00) (5, 6, 1.00000000000000000000e+00) (0, 6, 1.00000000000000000000e+00) 
connections (connected_to_neuron, weight)=(0, 8.83330249786376953125e+00) (1, -4.91883635520935058594e-01) (2, -1.62385344505310058594e-01) (3, -8.71004819869995117188e-01) (0, -8.29971790313720703125e+00) (1, 2.33128833770751953125e+00) (2, -3.10408562421798706055e-01) (3, 8.94792854785919189453e-01) (0, 2.10303798317909240723e-01) (1, 4.13704204559326171875e+00) (2, -2.96226453781127929688e+00) (3, 2.99884057044982910156e+00) (0, -6.29295259714126586914e-02) (1, 2.07921907305717468262e-01) (2, 1.52595579624176025391e+00) (3, 9.78457480669021606445e-02) (4, 3.92613083124160766602e-01) (5, 7.74185061454772949219e-01) (6, 4.45069849491119384766e-01) (7, -8.85317087173461914063e-01) (8, -8.37356388568878173828e-01) (4, 1.61432886123657226563e+00) (5, 9.98506426811218261719e-01) (6, 1.13018953800201416016e+00) (7, 2.23191547393798828125e+00) (8, -1.66413986682891845703e+00) (4, -4.38359171152114868164e-01) (5, -6.68554246425628662109e-01) (6, 2.87168884277343750000e+00) (7, -2.80482697486877441406e+00) (8, 2.09935927391052246094e+00) (4, 1.57705023884773254395e-01) (5, 5.09873032569885253906e-01) (6, 8.87583911418914794922e-01) (7, 3.12940537929534912109e-01) (8, -8.18515777587890625000e-01) (9, 6.90031945705413818359e-01) (10, 6.78067922592163085938e-01) (11, 2.88400083780288696289e-01) (12, -4.93797361850738525391e-01) (13, 6.10839426517486572266e-01) (9, 7.40214111283421516418e-03) (10, 6.87713101506233215332e-02) (11, 3.09566080570220947266e-01) (12, 9.21497404575347900391e-01) (13, 6.24117195606231689453e-01) (9, 5.27379095554351806641e-01) (10, 9.15085732936859130859e-01) (11, 3.48305612802505493164e-01) (12, -1.58887887001037597656e+00) (13, 3.32499295473098754883e-01) (9, 1.40815591812133789063e+00) (10, 7.61298835277557373047e-01) (11, 7.91920602321624755859e-01) (12, -2.01199222356081008911e-02) (13, 6.60815596580505371094e-01) (14, 1.95694148540496826172e+00) (15, -3.96328878402709960938e+00) (16, 2.62321066856384277344e+00) (17, 3.13677620887756347656e+00) (18, -1.87577605247497558594e-01) (14, -2.20963144302368164063e+00) (15, 4.41930341720581054688e+00) (16, -2.68506932258605957031e+00) (17, -3.30384945869445800781e+00) (18, 1.18930183351039886475e-01) 
