FANN_FLO_2.1
num_layers=5
learning_rate=0.700000
connection_rate=1.000000
network_type=0
learning_momentum=0.000000
training_algorithm=2
train_error_function=1
train_stop_function=1
cascade_output_change_fraction=0.010000
quickprop_decay=-0.000100
quickprop_mu=1.750000
rprop_increase_factor=1.200000
rprop_decrease_factor=0.500000
rprop_delta_min=0.000000
rprop_delta_max=50.000000
rprop_delta_zero=0.100000
cascade_output_stagnation_epochs=12
cascade_candidate_change_fraction=0.010000
cascade_candidate_stagnation_epochs=12
cascade_max_out_epochs=150
cascade_min_out_epochs=50
cascade_max_cand_epochs=150
cascade_min_cand_epochs=50
cascade_num_candidate_groups=2
bit_fail_limit=5.00000000000000000000e-01
cascade_candidate_limit=1.00000000000000000000e+03
cascade_weight_multiplier=4.00000005960464477539e-01
cascade_activation_functions_count=10
cascade_activation_functions=3 5 7 8 10 11 14 15 16 17 
cascade_activation_steepnesses_count=4
cascade_activation_steepnesses=2.50000000000000000000e-01 5.00000000000000000000e-01 7.50000000000000000000e-01 1.00000000000000000000e+00 
layer_sizes=4 5 5 5 3 
scale_included=0
neurons (num_inputs, activation_function, activation_steepness)=(0, 0, 0.00000000000000000000e+00) (0, 0, 0.00000000000000000000e+00) (0, 0, 0.00000000000000000000e+00) (0, 0, 0.00000000000000000000e+00) (4, 6, 1.00000000000000000000e+00) (4, 6, 1.00000000000000000000e+00) (4, 6, 1.00000000000000000000e+00) (4, 6, 1.00000000000000000000e+00) (0, 6, 1.00000000000000000000e+00) (5, 6, 1.00000000000000000000e+00) (5, 6, 1.00000000000000000000e+00) (5, 6, 1.00000000000000000000e+00) (5, 6, 1.00000000000000000000e+00) (0, 6, 1.00000000000000000000e+00) (5, 6, 1.00000000000000000000e+00) (5, 6, 1.00000000000000000000e+00) (5, 6, 1.00000000000000000000e+00) (5, 6, 1.00000000000000000000e+00) (0, 6, 1.00000000000000000000e+00) (5, 6, 1.00000000000000000000e+00) (5, 6, 1.00000000000000000000e+00) (0, 6, 1.00000000000000000000e+00) 
connections (connected_to_neuron, weight)=(0, -1.37746119499206542969e+00) (1, -3.75935411453247070313e+00) (2, 1.56773328781127929688e-02) (3, -1.99952018260955810547e+00) (0, 7.74337410926818847656e-01) (1, -1.13140165805816650391e+00) (2, -2.83748888969421386719e+00) (3, 1.04173326492309570313e+00) (0, 1.06752338409423828125e+01) (1, 1.03126800060272216797e+00) (2, 3.54833626747131347656e+00) (3, -8.67522597312927246094e-01) (0, 2.57746553421020507813e+00) (1, 3.41253972053527832031e+00) (2, -1.48976981639862060547e+00) (3, 4.80850636959075927734e-01) (4, 1.46167230606079101563e+00) (5, -4.81092125177383422852e-01) (6, -1.09819555282592773438e+00) (7, 2.01304721832275390625e+00) (8, -1.53363078832626342773e-01) (4, 1.88962090015411376953e+00) (5, -2.68953180313110351563e+00) (6, 2.03710031509399414063e+00) (7, 1.68564033508300781250e+00) (8, -8.60955178737640380859e-01) (4, -1.30755901336669921875e+00) (5, 2.06380105018615722656e+00) (6, -4.66796569526195526123e-02) (7, 1.18042027950286865234e+00) (8, 1.28862953186035156250e+00) (4, 2.47295945882797241211e-01) (5, 8.97416055202484130859e-01) (6, 8.88114094734191894531e-01) (7, -3.21892052888870239258e-01) (8, 6.37106716632843017578e-01) (9, 1.16279548645019531250e+02) (10, 4.13410530090332031250e+01) (11, -4.13398790359497070313e+00) (12, -8.75952720642089843750e-01) (13, -4.60971527099609375000e+01) (9, 6.48412287235260009766e-01) (10, 1.06183278560638427734e+00) (11, 8.17433834075927734375e-01) (12, 1.32851481437683105469e+00) (13, 8.16682994365692138672e-01) (9, 6.51308000087738037109e-01) (10, 1.12739062309265136719e+00) (11, 1.02789866924285888672e+00) (12, 1.26062047481536865234e+00) (13, -4.27644282579421997070e-01) (9, 3.96323442459106445313e-01) (10, 8.01959097385406494141e-01) (11, 6.79707646369934082031e-01) (12, 8.11922490596771240234e-01) (13, 7.51853764057159423828e-01) (14, 1.27970325946807861328e+00) (15, 5.31530082225799560547e-01) (16, 5.79891633987426757813e+00) (17, 8.26018452644348144531e-01) (18, 5.77957034111022949219e-01) (14, 4.99248117208480834961e-01) (15, -2.89730966091156005859e-01) (16, -6.06538963317871093750e+00) (17, 6.31210058927536010742e-02) (18, 4.07142698764801025391e-01) 
